FANN_FLO_2.1
num_layers=13
learning_rate=0.700000
connection_rate=1.000000
network_type=1
learning_momentum=0.000000
training_algorithm=2
train_error_function=1
train_stop_function=0
cascade_output_change_fraction=0.010000
quickprop_decay=-0.000100
quickprop_mu=1.750000
rprop_increase_factor=1.200000
rprop_decrease_factor=0.500000
rprop_delta_min=0.000000
rprop_delta_max=50.000000
rprop_delta_zero=0.100000
cascade_output_stagnation_epochs=12
cascade_candidate_change_fraction=0.010000
cascade_candidate_stagnation_epochs=12
cascade_max_out_epochs=150
cascade_min_out_epochs=50
cascade_max_cand_epochs=150
cascade_min_cand_epochs=50
cascade_num_candidate_groups=2
bit_fail_limit=3.49999994039535522461e-01
cascade_candidate_limit=1.00000000000000000000e+03
cascade_weight_multiplier=4.00000005960464477539e-01
cascade_activation_functions_count=10
cascade_activation_functions=3 5 7 8 10 11 14 15 16 17 
cascade_activation_steepnesses_count=4
cascade_activation_steepnesses=2.50000000000000000000e-01 5.00000000000000000000e-01 7.50000000000000000000e-01 1.00000000000000000000e+00 
layer_sizes=7 1 1 1 1 1 1 1 1 1 1 1 1 
scale_included=0
neurons (num_inputs, activation_function, activation_steepness)=(0, 0, 0.00000000000000000000e+00) (0, 0, 0.00000000000000000000e+00) (0, 0, 0.00000000000000000000e+00) (0, 0, 0.00000000000000000000e+00) (0, 0, 0.00000000000000000000e+00) (0, 0, 0.00000000000000000000e+00) (0, 0, 0.00000000000000000000e+00) (7, 15, 2.50000000000000000000e-01) (8, 15, 7.50000000000000000000e-01) (9, 16, 2.50000000000000000000e-01) (10, 15, 7.50000000000000000000e-01) (11, 15, 7.50000000000000000000e-01) (12, 15, 7.50000000000000000000e-01) (13, 15, 2.50000000000000000000e-01) (14, 15, 7.50000000000000000000e-01) (15, 15, 5.00000000000000000000e-01) (16, 15, 2.50000000000000000000e-01) (17, 15, 2.50000000000000000000e-01) (18, 4, 5.00000000000000000000e-01) 
connections (connected_to_neuron, weight)=(0, 2.91068410873413085938e+00) (1, 3.07975739240646362305e-01) (2, 4.70619049072265625000e+01) (3, 3.10904711484909057617e-01) (4, 9.39702749252319335938e-01) (5, 1.49465119838714599609e+00) (6, -2.69159564971923828125e+01) (0, 4.14988636970520019531e-01) (1, 4.68371948227286338806e-03) (2, -1.35146722197532653809e-01) (3, -1.32025897502899169922e+00) (4, 8.17854881286621093750e-01) (5, 1.19427323341369628906e+00) (6, -2.36614394187927246094e+00) (7, 5.72457611560821533203e-01) (0, -5.95586478710174560547e-01) (1, -4.03736904263496398926e-02) (2, -4.18547153472900390625e+00) (3, -2.11464619636535644531e+00) (4, 7.51680374145507812500e-01) (5, 1.12895882129669189453e+00) (6, -1.16774761676788330078e+00) (7, 9.79776954650878906250e+00) (8, -2.12516641616821289062e+00) (0, 1.34603929519653320312e+00) (1, 2.49684564769268035889e-02) (2, -4.37166601419448852539e-01) (3, 1.10414542257785797119e-01) (4, -1.89172759652137756348e-01) (5, 1.64586317539215087891e+00) (6, -9.63064283132553100586e-03) (7, -7.75244116783142089844e-01) (8, 8.16433727741241455078e-01) (9, 4.14133024215698242188e+00) (0, 9.68653261661529541016e-02) (1, 4.55773323774337768555e-02) (2, -1.10051423311233520508e-01) (3, 8.43804419040679931641e-01) (4, -3.53498935699462890625e-01) (5, -1.02714359760284423828e+00) (6, -2.79438042640686035156e+00) (7, 2.21835851669311523438e+00) (8, 2.11320614814758300781e+00) (9, -3.56523990631103515625e-01) (10, 6.99520301818847656250e+00) (0, 2.28703781962394714355e-01) (1, 3.92206609249114990234e-02) (2, 1.08570039272308349609e+00) (3, 1.33941507339477539062e+00) (4, 4.99349743127822875977e-01) (5, 4.34673279523849487305e-01) (6, 1.45298600196838378906e+00) (7, -1.38891065120697021484e+00) (8, 1.90999996662139892578e+00) (9, -1.04752993583679199219e+00) (10, 2.49742388725280761719e+00) (11, 1.71470928192138671875e+01) (0, 2.34582215547561645508e-01) (1, 1.32734209299087524414e-01) (2, 8.66467654705047607422e-01) (3, 1.04439866542816162109e+00) (4, 2.52988290786743164062e+00) (5, 5.19016504287719726562e-01) (6, 2.83186525106430053711e-01) (7, 4.40404176712036132812e+00) (8, 6.51030063629150390625e+00) (9, 7.31498003005981445312e-01) (10, -2.85921120643615722656e+00) (11, -3.67099732160568237305e-01) (12, 1.16409339904785156250e+01) (0, 1.67042613029479980469e+00) (1, -1.47452093660831451416e-02) (2, 2.35909008979797363281e+00) (3, 1.08493924140930175781e+00) (4, 1.09197545051574707031e+00) (5, 9.36362862586975097656e-01) (6, 2.51209592819213867188e+00) (7, 1.21070289611816406250e+00) (8, -5.43794572353363037109e-01) (9, 1.23097670078277587891e+00) (10, 4.00390291213989257812e+00) (11, -5.84020495414733886719e-01) (12, 2.77646684646606445312e+00) (13, -3.11095803976058959961e-01) (0, -1.88396131992340087891e+00) (1, -2.56334729492664337158e-02) (2, 6.98041057586669921875e+00) (3, 5.62606143951416015625e+00) (4, -2.88033223152160644531e+00) (5, -1.80804073810577392578e+00) (6, 2.68770307302474975586e-01) (7, -1.87889933586120605469e-01) (8, 7.50245857238769531250e+00) (9, 1.62696018815040588379e-01) (10, 5.13847112655639648438e+00) (11, 2.52917861938476562500e+00) (12, 4.57950878143310546875e+00) (13, 1.23260080814361572266e+00) (14, 2.00871038436889648438e+00) (0, 2.11662983894348144531e+00) (1, 1.15712262690067291260e-01) (2, -8.04704070091247558594e-01) (3, 2.37835586071014404297e-01) (4, 1.58838009834289550781e+00) (5, 2.51236581802368164062e+00) (6, 1.44030794501304626465e-01) (7, -4.46125221252441406250e+00) (8, -4.75173383951187133789e-01) (9, 7.54780435562133789062e+00) (10, 2.34635367989540100098e-01) (11, -1.94297039508819580078e+00) (12, 1.02954626083374023438e+00) (13, 5.45939922332763671875e+00) (14, -4.59891557693481445312e-01) (15, -3.47178608179092407227e-01) (0, -2.48426392674446105957e-01) (1, 8.92259925603866577148e-02) (2, -4.98237991333007812500e+00) (3, 8.41795682907104492188e-01) (4, 2.96385550498962402344e+00) (5, 2.09016609191894531250e+00) (6, 1.11405992507934570312e+00) (7, 3.79735612869262695312e+00) (8, 5.25265216827392578125e+00) (9, -2.48419499397277832031e+00) (10, 7.29348611831665039062e+00) (11, 2.79138755798339843750e+00) (12, -5.38958370685577392578e-01) (13, 4.67718601226806640625e+00) (14, 5.43583917617797851562e+00) (15, -2.27057695388793945312e+00) (16, 2.43722391128540039062e+00) (0, -4.48720365762710571289e-01) (1, 4.72033256664872169495e-03) (2, 6.79341614246368408203e-01) (3, -8.91776442527770996094e-01) (4, 3.14985305070877075195e-01) (5, 1.22534322738647460938e+00) (6, -1.02936327457427978516e-01) (7, -6.28521633148193359375e+00) (8, 6.37289237976074218750e+00) (9, -1.59837722778320312500e+01) (10, -6.86189937591552734375e+00) (11, 7.19525289535522460938e+00) (12, 9.93010711669921875000e+00) (13, -7.99138450622558593750e+00) (14, -7.74637317657470703125e+00) (15, 8.50972938537597656250e+00) (16, 5.99632644653320312500e+00) (17, -4.24109554290771484375e+00) 
