FANN_FLO_2.1
num_layers=20
learning_rate=0.700000
connection_rate=1.000000
network_type=1
learning_momentum=0.000000
training_algorithm=2
train_error_function=1
train_stop_function=0
cascade_output_change_fraction=0.010000
quickprop_decay=-0.000100
quickprop_mu=1.750000
rprop_increase_factor=1.200000
rprop_decrease_factor=0.500000
rprop_delta_min=0.000000
rprop_delta_max=50.000000
rprop_delta_zero=0.100000
cascade_output_stagnation_epochs=12
cascade_candidate_change_fraction=0.010000
cascade_candidate_stagnation_epochs=12
cascade_max_out_epochs=150
cascade_min_out_epochs=50
cascade_max_cand_epochs=150
cascade_min_cand_epochs=50
cascade_num_candidate_groups=2
bit_fail_limit=3.49999994039535522461e-01
cascade_candidate_limit=1.00000000000000000000e+03
cascade_weight_multiplier=4.00000005960464477539e-01
cascade_activation_functions_count=10
cascade_activation_functions=3 5 7 8 10 11 14 15 16 17 
cascade_activation_steepnesses_count=4
cascade_activation_steepnesses=2.50000000000000000000e-01 5.00000000000000000000e-01 7.50000000000000000000e-01 1.00000000000000000000e+00 
layer_sizes=5 1 1 1 1 1 1 1 1 1 1 1 1 1 1 1 1 1 1 1 
scale_included=0
neurons (num_inputs, activation_function, activation_steepness)=(0, 0, 0.00000000000000000000e+00) (0, 0, 0.00000000000000000000e+00) (0, 0, 0.00000000000000000000e+00) (0, 0, 0.00000000000000000000e+00) (0, 0, 0.00000000000000000000e+00) (5, 5, 5.00000000000000000000e-01) (6, 17, 1.00000000000000000000e+00) (7, 17, 5.00000000000000000000e-01) (8, 14, 2.50000000000000000000e-01) (9, 10, 7.50000000000000000000e-01) (10, 15, 7.50000000000000000000e-01) (11, 15, 5.00000000000000000000e-01) (12, 15, 2.50000000000000000000e-01) (13, 15, 2.50000000000000000000e-01) (14, 17, 5.00000000000000000000e-01) (15, 15, 5.00000000000000000000e-01) (16, 15, 5.00000000000000000000e-01) (17, 15, 2.50000000000000000000e-01) (18, 15, 2.50000000000000000000e-01) (19, 10, 1.00000000000000000000e+00) (20, 10, 5.00000000000000000000e-01) (21, 10, 5.00000000000000000000e-01) (22, 15, 5.00000000000000000000e-01) (23, 4, 5.00000000000000000000e-01) 
connections (connected_to_neuron, weight)=(0, -1.24395453929901123047e+00) (1, 2.39925067871809005737e-02) (2, -1.67418718338012695312e+00) (3, -1.21976923942565917969e+00) (4, -1.96497094631195068359e+00) (0, 5.31043410301208496094e-01) (1, 2.31055822223424911499e-02) (2, -4.14827525615692138672e-01) (3, 7.01450169086456298828e-01) (4, 6.78957700729370117188e-01) (5, -1.97450268268585205078e+00) (0, 7.62129545211791992188e-01) (1, 1.86660736799240112305e-01) (2, -1.15061545372009277344e+00) (3, -5.16668140888214111328e-01) (4, -3.42113924026489257812e+00) (5, 1.83467662334442138672e+00) (6, -2.62062191963195800781e-01) (0, -1.42774090170860290527e-01) (1, -1.44635634496808052063e-02) (2, -3.48384428024291992188e+00) (3, -9.24280941486358642578e-01) (4, 1.82173505425453186035e-01) (5, 2.77169883251190185547e-01) (6, 4.82763624191284179688e+00) (7, 9.98908233642578125000e+00) (0, -3.95106863975524902344e+00) (1, 2.39703524857759475708e-02) (2, 1.28695392608642578125e+00) (3, 3.23543936014175415039e-01) (4, -3.15685486793518066406e+00) (5, 8.33536052703857421875e+00) (6, -2.11235961914062500000e+01) (7, -1.00512809753417968750e+01) (8, 1.20173912048339843750e+01) (0, 1.25413906574249267578e+00) (1, -3.40354703366756439209e-02) (2, 1.15956878662109375000e+00) (3, -4.05842900276184082031e-01) (4, -1.59977328777313232422e+00) (5, -1.93702983856201171875e+00) (6, -1.16453282535076141357e-01) (7, -5.80729842185974121094e-01) (8, 3.21586585044860839844e+00) (9, 5.10439634323120117188e+00) (0, -3.48671451210975646973e-02) (1, 8.04583076387643814087e-04) (2, 4.44358021020889282227e-01) (3, 9.84971106052398681641e-01) (4, 2.27806520462036132812e+00) (5, 2.10435199737548828125e+00) (6, 1.22411012649536132812e+01) (7, 2.14959168434143066406e+00) (8, 2.28649044036865234375e+00) (9, 2.49220061302185058594e+00) (10, 5.61072874069213867188e+00) (0, 1.05512104928493499756e-01) (1, 1.43538206815719604492e-01) (2, -2.00877881050109863281e+00) (3, 2.50543761253356933594e+00) (4, 1.15315985679626464844e+00) (5, 6.23229026794433593750e+00) (6, 1.75514352321624755859e+00) (7, 5.15113878250122070312e+00) (8, 3.30192446708679199219e+00) (9, -1.56345641613006591797e+00) (10, 3.52674412727355957031e+00) (11, 4.61829900741577148438e+00) (0, 1.43110716342926025391e+00) (1, 3.68700623512268066406e-02) (2, 3.75361472368240356445e-01) (3, -6.94347381591796875000e+01) (4, -2.62878823280334472656e+00) (5, 5.07731389999389648438e+00) (6, -9.92748165130615234375e+00) (7, 1.71386170387268066406e+00) (8, 9.44744873046875000000e+00) (9, -9.19704818725585937500e+00) (10, 7.67581367492675781250e+00) (11, 4.96676921844482421875e+00) (12, 1.21135272979736328125e+01) (0, -6.88197970390319824219e-01) (1, 8.65095034241676330566e-02) (2, 2.39052844047546386719e+00) (3, 1.17416381835937500000e+00) (4, -6.20564043521881103516e-01) (5, 7.69654035568237304688e-01) (6, 8.61798572540283203125e+00) (7, -3.31981348991394042969e+00) (8, 1.96353244781494140625e+00) (9, -2.28171218872070312500e+02) (10, 4.80956125259399414062e+00) (11, 5.96721839904785156250e+00) (12, 2.01787686347961425781e+00) (13, -2.30162382125854492188e+00) (0, 1.26773571968078613281e+00) (1, 6.16176538169384002686e-02) (2, 6.06218814849853515625e-01) (3, 9.95190069079399108887e-02) (4, 8.65585148334503173828e-01) (5, 4.52526950836181640625e+00) (6, 4.01896655559539794922e-01) (7, 2.84738516807556152344e+00) (8, 1.13828444480895996094e+00) (9, -7.60166244506835937500e+01) (10, 1.91431546211242675781e+00) (11, 3.10156154632568359375e+00) (12, -1.84227681159973144531e+00) (13, 2.49911069869995117188e+00) (14, 5.02578496932983398438e+00) (0, 3.04217600822448730469e+00) (1, 1.87665130943059921265e-02) (2, 1.94530224800109863281e+00) (3, -1.34135627746582031250e+01) (4, -7.08654463291168212891e-01) (5, 5.43353509902954101562e+00) (6, 3.44140696525573730469e+00) (7, 3.13909411430358886719e+00) (8, 5.96005380153656005859e-01) (9, 1.33199179172515869141e+00) (10, 2.12135887145996093750e+00) (11, 2.39717960357666015625e+00) (12, -1.72272726893424987793e-01) (13, 3.19268131256103515625e+00) (14, 7.57398664951324462891e-01) (15, 2.84897279739379882812e+00) (0, 2.88757896423339843750e+00) (1, 1.80579051375389099121e-01) (2, 9.96139645576477050781e-01) (3, 2.31855792999267578125e+01) (4, 1.29859523773193359375e+01) (5, 9.17397499084472656250e-01) (6, 3.16158914566040039062e+00) (7, -3.90668995678424835205e-02) (8, -9.57097291946411132812e-01) (9, -5.50829162597656250000e+02) (10, 3.97527360916137695312e+00) (11, 1.12529087066650390625e+00) (12, 9.84115409851074218750e+00) (13, 3.66285133361816406250e+00) (14, 1.07363140583038330078e+00) (15, 8.17100524902343750000e+00) (16, -3.84503459930419921875e+00) (0, 1.89747130870819091797e+00) (1, 5.18478117883205413818e-02) (2, 2.12411665916442871094e+00) (3, 3.21854639053344726562e+00) (4, -9.03206527233123779297e-01) (5, -1.65062904357910156250e-01) (6, 1.43305435180664062500e+01) (7, 3.30808377265930175781e+00) (8, -1.80373084545135498047e+00) (9, 7.38560914993286132812e+00) (10, 4.25548839569091796875e+00) (11, 5.23385429382324218750e+00) (12, -8.51782798767089843750e+00) (13, -2.30967983603477478027e-01) (14, 5.22208738327026367188e+00) (15, -8.90494227409362792969e-01) (16, 9.79035758972167968750e+00) (17, 2.20144176483154296875e+00) (0, -1.93397272378206253052e-02) (1, -3.71960215270519256592e-02) (2, -3.92894983291625976562e+00) (3, 2.90534734725952148438e+00) (4, 7.11407840251922607422e-01) (5, 3.47128605842590332031e+00) (6, -2.56757259368896484375e+00) (7, -7.99887695312500000000e+01) (8, 5.03540039062500000000e+00) (9, 4.06369388103485107422e-01) (10, 8.58844566345214843750e+00) (11, -1.41802692413330078125e+01) (12, -1.28541316986083984375e+01) (13, -4.09705686569213867188e+00) (14, 4.37858253717422485352e-01) (15, 5.35523986816406250000e+00) (16, 7.69960021972656250000e+00) (17, 1.45915956497192382812e+01) (18, -1.73573551177978515625e+01) (0, 8.77163887023925781250e-01) (1, -1.69291079510003328323e-03) (2, 2.24276855587959289551e-01) (3, -1.51008233428001403809e-01) (4, -1.40960464477539062500e+01) (5, 7.13604307174682617188e+00) (6, -1.07840583801269531250e+02) (7, -4.22003173828125000000e+01) (8, -1.54662570953369140625e+01) (9, -2.49322395324707031250e+01) (10, -1.44021606445312500000e+01) (11, 1.02713813781738281250e+01) (12, 4.62319326400756835938e+00) (13, 3.55954313278198242188e+00) (14, -4.11707344055175781250e+01) (15, 2.07011520862579345703e-01) (16, 1.08986339569091796875e+01) (17, 6.20055150985717773438e+00) (18, -2.10870191454887390137e-01) (19, -1.57144165039062500000e+01) (0, 4.10089604556560516357e-02) (1, -1.56953874975442886353e-02) (2, -1.98047237396240234375e+01) (3, -1.82316646575927734375e+01) (4, -5.12922823429107666016e-01) (5, 1.32201039791107177734e+00) (6, 1.57639756798744201660e-01) (7, -4.28092880249023437500e+01) (8, -7.32028841972351074219e-01) (9, -6.34103736877441406250e+01) (10, 1.33680400848388671875e+01) (11, 9.31223964691162109375e+00) (12, 1.23645811080932617188e+01) (13, 2.62806949615478515625e+01) (14, 7.07129895687103271484e-01) (15, 1.57176482677459716797e+00) (16, -2.80380878448486328125e+01) (17, -9.18061435222625732422e-02) (18, -3.42461377382278442383e-01) (19, -1.22983566284179687500e+02) (20, -1.46824243164062500000e+03) (0, -2.46471345424652099609e-01) (1, 1.12737275660037994385e-01) (2, 1.66824197769165039062e+00) (3, 6.95223927497863769531e-01) (4, -4.97112095355987548828e-01) (5, 1.48490238189697265625e+00) (6, 2.96073645353317260742e-01) (7, -3.75858783721923828125e+00) (8, 1.24209783971309661865e-01) (9, -1.83296997070312500000e+02) (10, 3.67487096786499023438e+00) (11, 6.51426219940185546875e+00) (12, 2.71472859382629394531e+00) (13, 2.89456152915954589844e+00) (14, -8.50773394107818603516e-01) (15, 2.10744261741638183594e+00) (16, 1.30796651840209960938e+01) (17, 2.82819366455078125000e+00) (18, 8.04440140724182128906e-01) (19, 4.56749105453491210938e+00) (20, 3.14624748229980468750e+01) (21, 1.70023555755615234375e+01) (0, -1.90450310707092285156e-01) (1, -1.47368793841451406479e-03) (2, 3.22276145219802856445e-01) (3, 2.11851429939270019531e+00) (4, 3.10399234294891357422e-01) (5, -1.81791052222251892090e-01) (6, -3.31967449188232421875e+00) (7, -2.35470199584960937500e+00) (8, 6.64156198501586914062e+00) (9, 4.41020622253417968750e+01) (10, 1.32106676101684570312e+01) (11, 2.02347354888916015625e+01) (12, 1.62459526062011718750e+01) (13, 1.16728343963623046875e+01) (14, -1.89370670318603515625e+01) (15, 1.64864234924316406250e+01) (16, 1.02054653167724609375e+01) (17, 9.88474655151367187500e+00) (18, -7.42231988906860351562e+00) (19, 5.69958114624023437500e+01) (20, 1.86482067108154296875e+01) (21, -1.37209615707397460938e+01) (22, -5.65012073516845703125e+00) 
