FANN_FLO_2.1
num_layers=16
learning_rate=0.700000
connection_rate=1.000000
network_type=1
learning_momentum=0.000000
training_algorithm=2
train_error_function=1
train_stop_function=0
cascade_output_change_fraction=0.010000
quickprop_decay=-0.000100
quickprop_mu=1.750000
rprop_increase_factor=1.200000
rprop_decrease_factor=0.500000
rprop_delta_min=0.000000
rprop_delta_max=50.000000
rprop_delta_zero=0.100000
cascade_output_stagnation_epochs=12
cascade_candidate_change_fraction=0.010000
cascade_candidate_stagnation_epochs=12
cascade_max_out_epochs=150
cascade_min_out_epochs=50
cascade_max_cand_epochs=150
cascade_min_cand_epochs=50
cascade_num_candidate_groups=2
bit_fail_limit=3.49999994039535522461e-01
cascade_candidate_limit=1.00000000000000000000e+03
cascade_weight_multiplier=4.00000005960464477539e-01
cascade_activation_functions_count=10
cascade_activation_functions=3 5 7 8 10 11 14 15 16 17 
cascade_activation_steepnesses_count=4
cascade_activation_steepnesses=2.50000000000000000000e-01 5.00000000000000000000e-01 7.50000000000000000000e-01 1.00000000000000000000e+00 
layer_sizes=11 1 1 1 1 1 1 1 1 1 1 1 1 1 1 1 
scale_included=0
neurons (num_inputs, activation_function, activation_steepness)=(0, 0, 0.00000000000000000000e+00) (0, 0, 0.00000000000000000000e+00) (0, 0, 0.00000000000000000000e+00) (0, 0, 0.00000000000000000000e+00) (0, 0, 0.00000000000000000000e+00) (0, 0, 0.00000000000000000000e+00) (0, 0, 0.00000000000000000000e+00) (0, 0, 0.00000000000000000000e+00) (0, 0, 0.00000000000000000000e+00) (0, 0, 0.00000000000000000000e+00) (0, 0, 0.00000000000000000000e+00) (11, 5, 5.00000000000000000000e-01) (12, 15, 2.50000000000000000000e-01) (13, 15, 7.50000000000000000000e-01) (14, 15, 2.50000000000000000000e-01) (15, 15, 7.50000000000000000000e-01) (16, 10, 2.50000000000000000000e-01) (17, 15, 2.50000000000000000000e-01) (18, 3, 2.50000000000000000000e-01) (19, 15, 1.00000000000000000000e+00) (20, 10, 1.00000000000000000000e+00) (21, 10, 1.00000000000000000000e+00) (22, 15, 2.50000000000000000000e-01) (23, 15, 7.50000000000000000000e-01) (24, 15, 7.50000000000000000000e-01) (25, 4, 5.00000000000000000000e-01) 
connections (connected_to_neuron, weight)=(0, 8.65973383188247680664e-02) (1, -1.56182062625885009766e+00) (2, 9.04946565628051757812e-01) (3, -6.76328390836715698242e-02) (4, -6.49240722656250000000e+01) (5, 1.35990324020385742188e+01) (6, 4.29025344848632812500e+01) (7, -1.80488067626953125000e+02) (8, -9.73254889249801635742e-02) (9, 5.09647786617279052734e-01) (10, -2.31934547424316406250e+00) (0, -2.88729041814804077148e-01) (1, -1.26023578643798828125e+00) (2, 1.77026405930519104004e-01) (3, 1.47601542994379997253e-02) (4, -9.71916258335113525391e-01) (5, 1.19148780822753906250e+02) (6, -3.77920150756835937500e+01) (7, 3.24246215820312500000e+00) (8, -4.91020250320434570312e+00) (9, -9.19394791126251220703e-01) (10, -2.27556967735290527344e+00) (11, -7.36971235275268554688e+00) (0, -9.01529073715209960938e-01) (1, 4.32103067636489868164e-01) (2, -8.17152500152587890625e-01) (3, 2.09508053958415985107e-02) (4, 5.18924355506896972656e-01) (5, 2.25678145885467529297e-01) (6, -7.12373018264770507812e-01) (7, 6.38584673404693603516e-01) (8, -6.12827956676483154297e-01) (9, -1.15506529808044433594e+00) (10, -2.06794929504394531250e+00) (11, 3.35403442382812500000e+00) (12, -2.02672815322875976562e+00) (0, 1.78100621700286865234e+00) (1, 1.10037624835968017578e+00) (2, 1.00462317466735839844e+00) (3, 1.00167810916900634766e-01) (4, -6.09609544277191162109e-01) (5, -6.39132499694824218750e+00) (6, 2.77838001251220703125e+01) (7, 1.09206652641296386719e+00) (8, -1.44831407070159912109e+00) (9, 8.03534448146820068359e-01) (10, 1.80110979080200195312e+00) (11, 2.68717551231384277344e+00) (12, -5.52929103374481201172e-01) (13, 6.41875410079956054688e+00) (0, 1.09972512722015380859e+00) (1, 1.52596890926361083984e+00) (2, -1.34883478283882141113e-01) (3, 5.47966621816158294678e-02) (4, -5.73782801628112792969e-01) (5, 5.93538731336593627930e-02) (6, -6.57926225662231445312e+00) (7, -2.22521615028381347656e+00) (8, 7.54247188568115234375e-01) (9, 7.43700265884399414062e-01) (10, 9.57376599311828613281e-01) (11, 2.67327642440795898438e+00) (12, -8.69817018508911132812e-01) (13, -7.86160886287689208984e-01) (14, 1.70098054409027099609e+00) (0, 7.57303953170776367188e-01) (1, -2.43515819311141967773e-01) (2, 2.07477283477783203125e+00) (3, -7.82547056674957275391e-01) (4, -1.07371429443359375000e+02) (5, 7.96512842178344726562e+00) (6, 1.21690017700195312500e+02) (7, 6.94028167724609375000e+01) (8, 8.68589401245117187500e-01) (9, 4.61457997560501098633e-01) (10, -8.18499565124511718750e+00) (11, -4.43164110183715820312e+00) (12, 5.69783172607421875000e+01) (13, 3.27963294982910156250e+01) (14, 4.18590087890625000000e+01) (15, -4.17974815368652343750e+01) (0, -6.32646560668945312500e-01) (1, -5.38083016872406005859e-01) (2, 1.21375727653503417969e+00) (3, 2.59455710649490356445e-01) (4, 1.86766719818115234375e+01) (5, -5.24533424377441406250e+01) (6, 1.01041641235351562500e+01) (7, 1.19771102905273437500e+02) (8, 3.19604816436767578125e+01) (9, 7.53237581253051757812e+00) (10, 1.82215261459350585938e+00) (11, 3.84579920768737792969e+00) (12, 1.00991892814636230469e+00) (13, 7.71887588500976562500e+00) (14, 9.66973686218261718750e+00) (15, 8.46968555450439453125e+00) (16, -1.16503810882568359375e+01) (0, -5.34794092178344726562e-01) (1, -1.13333141803741455078e+00) (2, -7.11054801940917968750e-02) (3, 2.68677566200494766235e-02) (4, -3.44905167818069458008e-01) (5, 1.46884918212890625000e+01) (6, -4.78407821655273437500e+01) (7, 6.44106924533843994141e-01) (8, -4.08724516630172729492e-01) (9, -5.09988069534301757812e-01) (10, -8.20434856414794921875e+00) (11, 9.18284511566162109375e+00) (12, -8.77312421798706054688e-01) (13, 4.83957672119140625000e+00) (14, -2.02067995071411132812e+00) (15, -1.70299065113067626953e+00) (16, 1.08598175048828125000e+01) (17, -8.83720517158508300781e-01) (0, -3.84389340877532958984e-01) (1, 1.67728924751281738281e+00) (2, 4.46179181337356567383e-01) (3, -8.23227763175964355469e-02) (4, 5.47484457492828369141e-01) (5, 1.36313688755035400391e+00) (6, 3.53978812694549560547e-01) (7, -4.11584701538085937500e+01) (8, 1.50324249267578125000e+00) (9, 7.47304081916809082031e-01) (10, -4.19299334287643432617e-01) (11, 1.95334053039550781250e+00) (12, 5.22836208343505859375e+00) (13, 3.38137435913085937500e+00) (14, 4.31609183549880981445e-01) (15, 6.07341945171356201172e-01) (16, 3.90753746032714843750e+00) (17, 1.88439989089965820312e+00) (18, -1.13036727905273437500e+01) (0, 1.86288207769393920898e-01) (1, 8.60507667064666748047e-01) (2, -3.64389978349208831787e-02) (3, -1.85128197073936462402e-01) (4, 1.84419870376586914062e-01) (5, -2.20936226844787597656e+00) (6, 6.30742912292480468750e+01) (7, 2.32387757301330566406e+00) (8, -8.89836549758911132812e-01) (9, -1.67731976509094238281e+00) (10, 9.92958620190620422363e-03) (11, 1.67678785324096679688e+00) (12, -1.06104183197021484375e+00) (13, 7.52987194061279296875e+00) (14, 1.40911874771118164062e+01) (15, -1.77046298980712890625e+01) (16, -3.49853372573852539062e+00) (17, -1.08635387420654296875e+01) (18, -7.84250854492187500000e+02) (19, -6.85519981384277343750e+00) (0, -8.82536888122558593750e-01) (1, -2.55447983741760253906e+00) (2, -4.66516971588134765625e-01) (3, 5.63261508941650390625e-02) (4, -1.20936703681945800781e+00) (5, -1.33341908454895019531e+00) (6, -7.55370473861694335938e+00) (7, 1.07599845886230468750e+02) (8, -2.35136732459068298340e-01) (9, -1.04447078704833984375e+00) (10, 8.55290174484252929688e-01) (11, 1.48852930068969726562e+01) (12, -1.52026784420013427734e+00) (13, -1.04309864044189453125e+01) (14, 2.14569702148437500000e+01) (15, -3.60483789443969726562e+00) (16, -3.34127044677734375000e+02) (17, 5.60232973098754882812e+00) (18, 6.47558227539062500000e+02) (19, -1.32101488113403320312e+01) (20, -4.01643142700195312500e+01) (0, -1.35819232463836669922e+00) (1, -5.12655615806579589844e-01) (2, -1.26999413967132568359e+00) (3, 2.64533132314682006836e-01) (4, 7.70102844238281250000e+01) (5, -1.48380641937255859375e+01) (6, -5.15066261291503906250e+01) (7, 1.00280929565429687500e+02) (8, -8.31194072961807250977e-02) (9, -8.07653605937957763672e-01) (10, -8.78359496593475341797e-01) (11, 5.28972482681274414062e+00) (12, 4.71737527847290039062e+00) (13, 4.80772686004638671875e+00) (14, -6.77647447586059570312e+00) (15, 3.19370031356811523438e+00) (16, 2.70574417114257812500e+01) (17, 8.44545459747314453125e+00) (18, -2.75329380035400390625e+01) (19, 3.09138447046279907227e-02) (20, 1.53947410583496093750e+01) (21, 1.97238941192626953125e+01) (0, 1.32454991340637207031e-01) (1, -4.52694967389106750488e-02) (2, 2.65808135271072387695e-01) (3, 5.38890622556209564209e-02) (4, -2.50150114297866821289e-01) (5, 7.86984741687774658203e-01) (6, 6.45668697357177734375e+00) (7, 1.40977883338928222656e+00) (8, 2.83362507820129394531e-01) (9, -1.04033458232879638672e+00) (10, -3.52788615226745605469e+00) (11, 1.63112819194793701172e+00) (12, -3.03164899349212646484e-01) (13, 3.28662896156311035156e+00) (14, 5.03984212875366210938e+00) (15, 6.62508070468902587891e-01) (16, -1.05159578323364257812e+01) (17, 3.23341178894042968750e+00) (18, 2.13101974487304687500e+02) (19, 1.40433335304260253906e+00) (20, 8.04258880615234375000e+01) (21, 2.33936462402343750000e+01) (22, 2.79314517974853515625e+00) (0, 5.69467127323150634766e-01) (1, -7.43020534515380859375e-01) (2, -1.06311297416687011719e+00) (3, 2.64941960573196411133e-01) (4, -1.18205797672271728516e+00) (5, 9.63091909885406494141e-01) (6, -2.72956395149230957031e+00) (7, -6.59386291503906250000e+01) (8, -1.28095817565917968750e+00) (9, 2.87835478782653808594e-01) (10, -3.62270236015319824219e+00) (11, 4.45564556121826171875e+00) (12, -2.62066173553466796875e+00) (13, 1.21824300289154052734e+00) (14, 1.68591296672821044922e+00) (15, -3.98856371641159057617e-01) (16, 7.12737989425659179688e+00) (17, 8.84609699249267578125e-01) (18, 2.72558975219726562500e+01) (19, 2.47863960266113281250e+00) (20, 6.20935773849487304688e+00) (21, 8.51221942901611328125e+00) (22, 1.02818381786346435547e+00) (23, 3.72594809532165527344e+00) (0, -5.60643434524536132812e-01) (1, -2.25844293832778930664e-01) (2, -5.08670866489410400391e-01) (3, 7.47867524623870849609e-02) (4, 6.19895248413085937500e+01) (5, 2.34502677917480468750e+01) (6, 4.01516609191894531250e+01) (7, 3.65818061828613281250e+01) (8, 2.26501197814941406250e+01) (9, 2.60555744171142578125e+01) (10, -5.97913599014282226562e+00) (11, -3.66217160224914550781e+00) (12, -1.08411975204944610596e-01) (13, 2.04339027404785156250e+00) (14, 3.07373213768005371094e+00) (15, -2.10465550422668457031e+00) (16, 8.13190281391143798828e-01) (17, -2.59473085403442382812e+00) (18, -1.83713348388671875000e+02) (19, -3.08089399337768554688e+00) (20, -1.26077651977539062500e+01) (21, -1.62260650634765625000e+02) (22, -2.30503320693969726562e+00) (23, 1.79373526573181152344e+00) (24, 1.51664221286773681641e+00) 
